<?xml version="1.0"?>
<opencv_storage>
<cascade>
  <stageType>BOOST</stageType>
  <featureType>HAAR</featureType>
  <height>24</height>
  <width>36</width>
  <stageParams>
    <boostType>GAB</boostType>
    <minHitRate>9.9500000476837158e-01</minHitRate>
    <maxFalseAlarm>5.0000000000000000e-01</maxFalseAlarm>
    <weightTrimRate>9.4999998807907104e-01</weightTrimRate>
    <maxDepth>1</maxDepth>
    <maxWeakCount>100</maxWeakCount></stageParams>
  <featureParams>
    <maxCatCount>0</maxCatCount>
    <featSize>1</featSize>
    <mode>BASIC</mode></featureParams>
  <stageNum>15</stageNum>
  <stages>
    <!-- stage 0 -->
    <_>
      <maxWeakCount>7</maxWeakCount>
      <stageThreshold>1.2839888222515583e-03</stageThreshold>
      <weakClassifiers>
        <_>
          <internalNodes>
            0 -1 52 2.5973647832870483e-02</internalNodes>
          <leafValues>
            2.9032257199287415e-01 9.8611110448837280e-01</leafValues></_>
        <_>
          <internalNodes>
            0 -1 73 -2.0575013011693954e-02</internalNodes>
          <leafValues>
            9.0490072965621948e-01 -1.1302177608013153e-01</leafValues></_>
        <_>
          <internalNodes>
            0 -1 16 -2.8989216312766075e-02</internalNodes>
          <leafValues>
            1. -1.9014754891395569e-01</leafValues></_>
        <_>
          <internalNodes>
            0 -1 2 -2.4940893054008484e-02</internalNodes>
          <leafValues>
            7.9671120643615723e-01 -2.7492395043373108e-01</leafValues></_>
        <_>
          <internalNodes>
            0 -1 37 -5.8122854679822922e-03</internalNodes>
          <leafValues>
            8.3061522245407104e-01 -2.3196163773536682e-01</leafValues></_>
        <_>
          <internalNodes>
            0 -1 59 7.2247544303536415e-03</internalNodes>
          <leafValues>
            -2.4712899327278137e-01 7.7887904644012451e-01</leafValues></_>
        <_>
          <internalNodes>
            0 -1 43 -6.8888324312865734e-03</internalNodes>
          <leafValues>
            8.1612855195999146e-01 -2.4977716803550720e-01</leafValues></_></weakClassifiers></_>
    <!-- stage 1 -->
    <_>
      <maxWeakCount>8</maxWeakCount>
      <stageThreshold>-5.0404548645019531e-01</stageThreshold>
      <weakClassifiers>
        <_>
          <internalNodes>
            0 -1 84 1.0999010875821114e-02</internalNodes>
          <leafValues>
            2.0408163964748383e-01 8.8775509595870972e-01</leafValues></_>
        <_>
          <internalNodes>
            0 -1 70 -8.8678449392318726e-03</internalNodes>
          <leafValues>
            8.1433862447738647e-01 -1.2409976869821548e-01</leafValues></_>
        <_>
          <internalNodes>
            0 -1 36 5.5580362677574158e-02</internalNodes>
          <leafValues>
            -1.8396085500717163e-01 8.3073830604553223e-01</leafValues></_>
        <_>
          <internalNodes>
            0 -1 50 4.7047752887010574e-02</internalNodes>
          <leafValues>
            -2.4210414290428162e-01 8.6665469408035278e-01</leafValues></_>
        <_>
          <internalNodes>
            0 -1 118 -2.5823945179581642e-04</internalNodes>
          <leafValues>
            -6.2693464756011963e-01 3.3838605880737305e-01</leafValues></_>
        <_>
          <internalNodes>
            0 -1 6 1.1970639228820801e-01</internalNodes>
          <leafValues>
            -2.2635537385940552e-01 9.3823009729385376e-01</leafValues></_>
        <_>
          <internalNodes>
            0 -1 102 -8.5272770375013351e-03</internalNodes>
          <leafValues>
            6.6675829887390137e-01 -2.6282748579978943e-01</leafValues></_>
        <_>
          <internalNodes>
            0 -1 0 -1.7875203490257263e-01</internalNodes>
          <leafValues>
            7.8092259168624878e-01 -2.0643036067485809e-01</leafValues></_></weakClassifiers></_>
    <!-- stage 2 -->
    <_>
      <maxWeakCount>10</maxWeakCount>
      <stageThreshold>-5.6405681371688843e-01</stageThreshold>
      <weakClassifiers>
        <_>
          <internalNodes>
            0 -1 88 3.6521349102258682e-03</internalNodes>
          <leafValues>
            2.2857142984867096e-01 9.1208791732788086e-01</leafValues></_>
        <_>
          <internalNodes>
            0 -1 114 -3.8297724677249789e-04</internalNodes>
          <leafValues>
            -2.7243575453758240e-01 5.5584907531738281e-01</leafValues></_>
        <_>
          <internalNodes>
            0 -1 25 2.0096376538276672e-02</internalNodes>
          <leafValues>
            -1.6895082592964172e-01 1.</leafValues></_>
        <_>
          <internalNodes>
            0 -1 54 1.9039288163185120e-02</internalNodes>
          <leafValues>
            -1.6992257535457611e-01 9.6049481630325317e-01</leafValues></_>
        <_>
          <internalNodes>
            0 -1 136 4.7479447675868869e-04</internalNodes>
          <leafValues>
            2.8382173180580139e-01 -7.4561929702758789e-01</leafValues></_>
        <_>
          <internalNodes>
            0 -1 58 1.7399862408638000e-02</internalNodes>
          <leafValues>
            -3.0154660344123840e-01 6.7146211862564087e-01</leafValues></_>
        <_>
          <internalNodes>
            0 -1 41 3.7443123757839203e-02</internalNodes>
          <leafValues>
            -1.8834768235683441e-01 8.5081142187118530e-01</leafValues></_>
        <_>
          <internalNodes>
            0 -1 123 -9.7524386364966631e-04</internalNodes>
          <leafValues>
            -4.6957623958587646e-01 3.8024404644966125e-01</leafValues></_>
        <_>
          <internalNodes>
            0 -1 13 -2.2397910652216524e-04</internalNodes>
          <leafValues>
            -5.3860408067703247e-01 3.2001996040344238e-01</leafValues></_>
        <_>
          <internalNodes>
            0 -1 115 -3.2404513331130147e-04</internalNodes>
          <leafValues>
            -3.2958599925041199e-01 5.1156693696975708e-01</leafValues></_></weakClassifiers></_>
    <!-- stage 3 -->
    <_>
      <maxWeakCount>10</maxWeakCount>
      <stageThreshold>-2.8931361436843872e-01</stageThreshold>
      <weakClassifiers>
        <_>
          <internalNodes>
            0 -1 71 1.8501682206988335e-03</internalNodes>
          <leafValues>
            1.9125683605670929e-01 8.5645931959152222e-01</leafValues></_>
        <_>
          <internalNodes>
            0 -1 117 -4.3746235314756632e-04</internalNodes>
          <leafValues>
            -1.9824071228504181e-01 6.3908809423446655e-01</leafValues></_>
        <_>
          <internalNodes>
            0 -1 60 1.9142726436257362e-02</internalNodes>
          <leafValues>
            -2.3655678331851959e-01 6.1969918012619019e-01</leafValues></_>
        <_>
          <internalNodes>
            0 -1 93 4.3753605335950851e-02</internalNodes>
          <leafValues>
            -1.8166743218898773e-01 1.</leafValues></_>
        <_>
          <internalNodes>
            0 -1 62 -2.3867310956120491e-03</internalNodes>
          <leafValues>
            8.7124592065811157e-01 -9.6863172948360443e-02</leafValues></_>
        <_>
          <internalNodes>
            0 -1 110 -3.9016027003526688e-03</internalNodes>
          <leafValues>
            7.5678616762161255e-01 -1.9064007699489594e-01</leafValues></_>
        <_>
          <internalNodes>
            0 -1 48 -1.9831345416605473e-03</internalNodes>
          <leafValues>
            6.7056602239608765e-01 -2.1095378696918488e-01</leafValues></_>
        <_>
          <internalNodes>
            0 -1 74 -5.7680364698171616e-03</internalNodes>
          <leafValues>
            7.3772305250167847e-01 -2.0854119956493378e-01</leafValues></_>
        <_>
          <internalNodes>
            0 -1 120 3.2188356271944940e-04</internalNodes>
          <leafValues>
            3.2251662015914917e-01 -5.7394659519195557e-01</leafValues></_>
        <_>
          <internalNodes>
            0 -1 132 -2.2117008484201506e-05</internalNodes>
          <leafValues>
            -3.1695270538330078e-01 5.0275415182113647e-01</leafValues></_></weakClassifiers></_>
    <!-- stage 4 -->
    <_>
      <maxWeakCount>9</maxWeakCount>
      <stageThreshold>-9.0382210910320282e-02</stageThreshold>
      <weakClassifiers>
        <_>
          <internalNodes>
            0 -1 64 4.4274173676967621e-02</internalNodes>
          <leafValues>
            3.4090909361839294e-01 9.6875000000000000e-01</leafValues></_>
        <_>
          <internalNodes>
            0 -1 67 2.5420561432838440e-03</internalNodes>
          <leafValues>
            -1.7254790291190147e-02 1.</leafValues></_>
        <_>
          <internalNodes>
            0 -1 78 -2.5405315682291985e-03</internalNodes>
          <leafValues>
            9.3118667602539063e-01 -1.2050843983888626e-01</leafValues></_>
        <_>
          <internalNodes>
            0 -1 45 -1.6202058643102646e-02</internalNodes>
          <leafValues>
            9.3230378627777100e-01 -8.8750600814819336e-02</leafValues></_>
        <_>
          <internalNodes>
            0 -1 116 3.1277397647500038e-03</internalNodes>
          <leafValues>
            2.2026033699512482e-01 -6.8204092979431152e-01</leafValues></_>
        <_>
          <internalNodes>
            0 -1 87 1.7761264462023973e-03</internalNodes>
          <leafValues>
            -2.2432431578636169e-01 6.3180142641067505e-01</leafValues></_>
        <_>
          <internalNodes>
            0 -1 109 1.1043946724385023e-03</internalNodes>
          <leafValues>
            2.8274530172348022e-01 -5.8239161968231201e-01</leafValues></_>
        <_>
          <internalNodes>
            0 -1 94 2.5231443578377366e-04</internalNodes>
          <leafValues>
            -2.5984036922454834e-01 5.8688724040985107e-01</leafValues></_>
        <_>
          <internalNodes>
            0 -1 23 -2.8740100562572479e-02</internalNodes>
          <leafValues>
            6.7868286371231079e-01 -1.9165548682212830e-01</leafValues></_></weakClassifiers></_>
    <!-- stage 5 -->
    <_>
      <maxWeakCount>8</maxWeakCount>
      <stageThreshold>-2.6570144295692444e-01</stageThreshold>
      <weakClassifiers>
        <_>
          <internalNodes>
            0 -1 35 -6.6526810405775905e-04</internalNodes>
          <leafValues>
            -2.2033898532390594e-01 6.8168169260025024e-01</leafValues></_>
        <_>
          <internalNodes>
            0 -1 89 1.4498487114906311e-02</internalNodes>
          <leafValues>
            -1.1483407020568848e-01 7.9808449745178223e-01</leafValues></_>
        <_>
          <internalNodes>
            0 -1 133 -9.0034189634025097e-04</internalNodes>
          <leafValues>
            -5.1579391956329346e-01 3.1337749958038330e-01</leafValues></_>
        <_>
          <internalNodes>
            0 -1 130 3.7629819416906685e-05</internalNodes>
          <leafValues>
            3.5357072949409485e-01 -4.4204151630401611e-01</leafValues></_>
        <_>
          <internalNodes>
            0 -1 38 3.9110202342271805e-03</internalNodes>
          <leafValues>
            -2.3569209873676300e-01 7.5973063707351685e-01</leafValues></_>
        <_>
          <internalNodes>
            0 -1 119 -6.7829515319317579e-04</internalNodes>
          <leafValues>
            -4.7127223014831543e-01 3.4592318534851074e-01</leafValues></_>
        <_>
          <internalNodes>
            0 -1 75 1.3229015166871250e-04</internalNodes>
          <leafValues>
            3.3476856350898743e-01 -5.1442664861679077e-01</leafValues></_>
        <_>
          <internalNodes>
            0 -1 92 -1.9981835037469864e-02</internalNodes>
          <leafValues>
            6.6576135158538818e-01 -2.9813012480735779e-01</leafValues></_></weakClassifiers></_>
    <!-- stage 6 -->
    <_>
      <maxWeakCount>10</maxWeakCount>
      <stageThreshold>-3.1928467750549316e-01</stageThreshold>
      <weakClassifiers>
        <_>
          <internalNodes>
            0 -1 3 5.2724301815032959e-01</internalNodes>
          <leafValues>
            6.1394101381301880e-01 -7.8947371244430542e-01</leafValues></_>
        <_>
          <internalNodes>
            0 -1 55 1.2342503294348717e-02</internalNodes>
          <leafValues>
            -1.0258064419031143e-01 1.</leafValues></_>
        <_>
          <internalNodes>
            0 -1 68 1.6965382965281606e-03</internalNodes>
          <leafValues>
            -1.3718214631080627e-01 9.2996048927307129e-01</leafValues></_>
        <_>
          <internalNodes>
            0 -1 125 -1.1572247603908181e-03</internalNodes>
          <leafValues>
            -4.9017706513404846e-01 3.2193785905838013e-01</leafValues></_>
        <_>
          <internalNodes>
            0 -1 79 3.8679421413689852e-03</internalNodes>
          <leafValues>
            -2.0640067756175995e-01 8.6965686082839966e-01</leafValues></_>
        <_>
          <internalNodes>
            0 -1 56 2.4859656114131212e-03</internalNodes>
          <leafValues>
            -1.5256002545356750e-01 9.1457074880599976e-01</leafValues></_>
        <_>
          <internalNodes>
            0 -1 80 -6.5735762473195791e-04</internalNodes>
          <leafValues>
            -3.1484183669090271e-01 5.0552749633789063e-01</leafValues></_>
        <_>
          <internalNodes>
            0 -1 134 -9.7753814770840108e-05</internalNodes>
          <leafValues>
            -4.6941122412681580e-01 3.6657577753067017e-01</leafValues></_>
        <_>
          <internalNodes>
            0 -1 10 -1.4872672036290169e-02</internalNodes>
          <leafValues>
            7.1487760543823242e-01 -2.6778006553649902e-01</leafValues></_>
        <_>
          <internalNodes>
            0 -1 14 1.8273268360644579e-03</internalNodes>
          <leafValues>
            -1.3955989480018616e-01 9.5847582817077637e-01</leafValues></_></weakClassifiers></_>
    <!-- stage 7 -->
    <_>
      <maxWeakCount>9</maxWeakCount>
      <stageThreshold>-8.7626919150352478e-02</stageThreshold>
      <weakClassifiers>
        <_>
          <internalNodes>
            0 -1 22 -2.2319562733173370e-01</internalNodes>
          <leafValues>
            -5.0000000000000000e-01 6.6477274894714355e-01</leafValues></_>
        <_>
          <internalNodes>
            0 -1 66 1.7842255532741547e-02</internalNodes>
          <leafValues>
            -1.4651441574096680e-01 7.7425247430801392e-01</leafValues></_>
        <_>
          <internalNodes>
            0 -1 111 -4.1596233495511115e-04</internalNodes>
          <leafValues>
            5.1335215568542480e-01 -2.6862731575965881e-01</leafValues></_>
        <_>
          <internalNodes>
            0 -1 40 -8.0605025868862867e-04</internalNodes>
          <leafValues>
            -5.4299777746200562e-01 2.8536212444305420e-01</leafValues></_>
        <_>
          <internalNodes>
            0 -1 65 2.6384038850665092e-02</internalNodes>
          <leafValues>
            -1.5218849480152130e-01 8.5116690397262573e-01</leafValues></_>
        <_>
          <internalNodes>
            0 -1 129 3.8767873775213957e-04</internalNodes>
          <leafValues>
            2.2747255861759186e-01 -7.5897818803787231e-01</leafValues></_>
        <_>
          <internalNodes>
            0 -1 21 -9.8449381766840816e-06</internalNodes>
          <leafValues>
            4.3551838397979736e-01 -3.6706185340881348e-01</leafValues></_>
        <_>
          <internalNodes>
            0 -1 77 2.1447218954563141e-02</internalNodes>
          <leafValues>
            -1.5768250823020935e-01 9.0654009580612183e-01</leafValues></_>
        <_>
          <internalNodes>
            0 -1 27 -3.8348516682162881e-04</internalNodes>
          <leafValues>
            -7.5437366962432861e-01 2.0963352918624878e-01</leafValues></_></weakClassifiers></_>
    <!-- stage 8 -->
    <_>
      <maxWeakCount>9</maxWeakCount>
      <stageThreshold>1.9341851584613323e-03</stageThreshold>
      <weakClassifiers>
        <_>
          <internalNodes>
            0 -1 20 -4.7471955418586731e-02</internalNodes>
          <leafValues>
            -3.1428572535514832e-01 6.3025212287902832e-01</leafValues></_>
        <_>
          <internalNodes>
            0 -1 1 2.6103765703737736e-03</internalNodes>
          <leafValues>
            -1.7228682339191437e-01 6.9379591941833496e-01</leafValues></_>
        <_>
          <internalNodes>
            0 -1 100 1.6800429672002792e-02</internalNodes>
          <leafValues>
            -1.4305153489112854e-01 8.0293422937393188e-01</leafValues></_>
        <_>
          <internalNodes>
            0 -1 124 5.9528136625885963e-04</internalNodes>
          <leafValues>
            2.3075434565544128e-01 -5.8396261930465698e-01</leafValues></_>
        <_>
          <internalNodes>
            0 -1 86 1.0363936889916658e-03</internalNodes>
          <leafValues>
            -2.1843253076076508e-01 6.9552481174468994e-01</leafValues></_>
        <_>
          <internalNodes>
            0 -1 98 8.9710974862100556e-06</internalNodes>
          <leafValues>
            -3.0019244551658630e-01 4.7202274203300476e-01</leafValues></_>
        <_>
          <internalNodes>
            0 -1 76 9.8659889772534370e-04</internalNodes>
          <leafValues>
            -2.5921523571014404e-01 5.7302021980285645e-01</leafValues></_>
        <_>
          <internalNodes>
            0 -1 4 -8.1062437966465950e-03</internalNodes>
          <leafValues>
            9.6830791234970093e-01 -1.2139831483364105e-01</leafValues></_>
        <_>
          <internalNodes>
            0 -1 69 8.5304302047006786e-05</internalNodes>
          <leafValues>
            -3.4024545550346375e-01 3.9800637960433960e-01</leafValues></_></weakClassifiers></_>
    <!-- stage 9 -->
    <_>
      <maxWeakCount>9</maxWeakCount>
      <stageThreshold>-7.0582702755928040e-02</stageThreshold>
      <weakClassifiers>
        <_>
          <internalNodes>
            0 -1 30 3.7925630807876587e-02</internalNodes>
          <leafValues>
            2.2222222387790680e-01 8.7628865242004395e-01</leafValues></_>
        <_>
          <internalNodes>
            0 -1 106 2.9168552719056606e-03</internalNodes>
          <leafValues>
            3.4728875756263733e-01 -6.1727207899093628e-01</leafValues></_>
        <_>
          <internalNodes>
            0 -1 47 1.9787464290857315e-02</internalNodes>
          <leafValues>
            -2.8982090950012207e-01 6.8417209386825562e-01</leafValues></_>
        <_>
          <internalNodes>
            0 -1 17 4.2286427924409509e-04</internalNodes>
          <leafValues>
            2.6572021842002869e-01 -6.5151548385620117e-01</leafValues></_>
        <_>
          <internalNodes>
            0 -1 96 -1.5003100270405412e-03</internalNodes>
          <leafValues>
            6.6383218765258789e-01 -2.6728227734565735e-01</leafValues></_>
        <_>
          <internalNodes>
            0 -1 95 8.4112929180264473e-03</internalNodes>
          <leafValues>
            -2.6768442988395691e-01 7.4241423606872559e-01</leafValues></_>
        <_>
          <internalNodes>
            0 -1 135 -1.7273533740080893e-04</internalNodes>
          <leafValues>
            -6.6376525163650513e-01 2.8950181603431702e-01</leafValues></_>
        <_>
          <internalNodes>
            0 -1 24 2.6520405663177371e-04</internalNodes>
          <leafValues>
            -3.4677290916442871e-01 4.6067148447036743e-01</leafValues></_>
        <_>
          <internalNodes>
            0 -1 82 -1.7106973100453615e-03</internalNodes>
          <leafValues>
            -6.7734336853027344e-01 2.3941402137279510e-01</leafValues></_></weakClassifiers></_>
    <!-- stage 10 -->
    <_>
      <maxWeakCount>11</maxWeakCount>
      <stageThreshold>-7.8715182840824127e-02</stageThreshold>
      <weakClassifiers>
        <_>
          <internalNodes>
            0 -1 33 1.4516502618789673e-02</internalNodes>
          <leafValues>
            3.5632184147834778e-01 9.2366409301757813e-01</leafValues></_>
        <_>
          <internalNodes>
            0 -1 29 -1.1081930715590715e-03</internalNodes>
          <leafValues>
            7.7161538600921631e-01 -7.1168400347232819e-02</leafValues></_>
        <_>
          <internalNodes>
            0 -1 97 1.2158430181443691e-03</internalNodes>
          <leafValues>
            -1.5895298123359680e-01 8.2818084955215454e-01</leafValues></_>
        <_>
          <internalNodes>
            0 -1 46 -2.3877928470028564e-05</internalNodes>
          <leafValues>
            4.2740848660469055e-01 -3.4703743457794189e-01</leafValues></_>
        <_>
          <internalNodes>
            0 -1 104 -1.1313730283291079e-05</internalNodes>
          <leafValues>
            5.2666991949081421e-01 -3.1101790070533752e-01</leafValues></_>
        <_>
          <internalNodes>
            0 -1 103 2.6981817791238427e-04</internalNodes>
          <leafValues>
            -1.9912792742252350e-01 7.9742521047592163e-01</leafValues></_>
        <_>
          <internalNodes>
            0 -1 8 1.3932661386206746e-04</internalNodes>
          <leafValues>
            -2.8449010848999023e-01 5.6012850999832153e-01</leafValues></_>
        <_>
          <internalNodes>
            0 -1 121 -4.5377186324913055e-05</internalNodes>
          <leafValues>
            7.3919188976287842e-01 -2.1568420529365540e-01</leafValues></_>
        <_>
          <internalNodes>
            0 -1 7 3.4335750387981534e-04</internalNodes>
          <leafValues>
            2.4277114868164063e-01 -6.9429016113281250e-01</leafValues></_>
        <_>
          <internalNodes>
            0 -1 126 8.4689872892340645e-06</internalNodes>
          <leafValues>
            -3.6286687850952148e-01 4.3294802308082581e-01</leafValues></_>
        <_>
          <internalNodes>
            0 -1 122 -5.4188989452086389e-05</internalNodes>
          <leafValues>
            5.4404079914093018e-01 -2.9772317409515381e-01</leafValues></_></weakClassifiers></_>
    <!-- stage 11 -->
    <_>
      <maxWeakCount>7</maxWeakCount>
      <stageThreshold>-1.3226297497749329e-01</stageThreshold>
      <weakClassifiers>
        <_>
          <internalNodes>
            0 -1 49 4.3039590120315552e-01</internalNodes>
          <leafValues>
            6.4542937278747559e-01 -6.1290323734283447e-01</leafValues></_>
        <_>
          <internalNodes>
            0 -1 83 3.7821996957063675e-03</internalNodes>
          <leafValues>
            -3.0269008874893188e-01 6.4072036743164063e-01</leafValues></_>
        <_>
          <internalNodes>
            0 -1 63 2.7299977955408394e-04</internalNodes>
          <leafValues>
            -2.5470361113548279e-01 7.0620894432067871e-01</leafValues></_>
        <_>
          <internalNodes>
            0 -1 99 -7.0087239146232605e-04</internalNodes>
          <leafValues>
            8.2764595746994019e-01 -2.2260648012161255e-01</leafValues></_>
        <_>
          <internalNodes>
            0 -1 44 2.8678379952907562e-02</internalNodes>
          <leafValues>
            -2.5751292705535889e-01 6.0898262262344360e-01</leafValues></_>
        <_>
          <internalNodes>
            0 -1 57 -3.3192420378327370e-03</internalNodes>
          <leafValues>
            8.0422586202621460e-01 -2.5289070606231689e-01</leafValues></_>
        <_>
          <internalNodes>
            0 -1 81 3.3997150603681803e-04</internalNodes>
          <leafValues>
            -3.5378408432006836e-01 5.9980827569961548e-01</leafValues></_></weakClassifiers></_>
    <!-- stage 12 -->
    <_>
      <maxWeakCount>10</maxWeakCount>
      <stageThreshold>-1.3134920597076416e-01</stageThreshold>
      <weakClassifiers>
        <_>
          <internalNodes>
            0 -1 53 1.8011938780546188e-02</internalNodes>
          <leafValues>
            2.9577463865280151e-01 8.4357541799545288e-01</leafValues></_>
        <_>
          <internalNodes>
            0 -1 5 1.1251002550125122e-02</internalNodes>
          <leafValues>
            3.2664442062377930e-01 -4.7310805320739746e-01</leafValues></_>
        <_>
          <internalNodes>
            0 -1 18 -4.2412772017996758e-05</internalNodes>
          <leafValues>
            -4.4005867838859558e-01 3.0717170238494873e-01</leafValues></_>
        <_>
          <internalNodes>
            0 -1 51 -1.3953244313597679e-02</internalNodes>
          <leafValues>
            6.5002918243408203e-01 -2.3667740821838379e-01</leafValues></_>
        <_>
          <internalNodes>
            0 -1 15 -5.1441349089145660e-02</internalNodes>
          <leafValues>
            6.9166821241378784e-01 -2.0901434123516083e-01</leafValues></_>
        <_>
          <internalNodes>
            0 -1 131 -2.2074468433856964e-03</internalNodes>
          <leafValues>
            -5.9914630651473999e-01 2.5030961632728577e-01</leafValues></_>
        <_>
          <internalNodes>
            0 -1 101 -9.4289630651473999e-03</internalNodes>
          <leafValues>
            4.9822321534156799e-01 -3.1527686119079590e-01</leafValues></_>
        <_>
          <internalNodes>
            0 -1 34 5.5473046377301216e-03</internalNodes>
          <leafValues>
            2.4222432076931000e-01 -6.4069604873657227e-01</leafValues></_>
        <_>
          <internalNodes>
            0 -1 105 -8.7424641242250800e-04</internalNodes>
          <leafValues>
            3.9791461825370789e-01 -3.3439439535140991e-01</leafValues></_>
        <_>
          <internalNodes>
            0 -1 42 1.2048594653606415e-03</internalNodes>
          <leafValues>
            -2.0615918934345245e-01 6.3870471715927124e-01</leafValues></_></weakClassifiers></_>
    <!-- stage 13 -->
    <_>
      <maxWeakCount>11</maxWeakCount>
      <stageThreshold>-1.8288280069828033e-01</stageThreshold>
      <weakClassifiers>
        <_>
          <internalNodes>
            0 -1 90 6.9689219817519188e-03</internalNodes>
          <leafValues>
            3.5632184147834778e-01 9.2366409301757813e-01</leafValues></_>
        <_>
          <internalNodes>
            0 -1 85 1.3191138859838247e-03</internalNodes>
          <leafValues>
            -1.4008612371981144e-02 8.8737440109252930e-01</leafValues></_>
        <_>
          <internalNodes>
            0 -1 39 2.5783560704439878e-04</internalNodes>
          <leafValues>
            2.8251469135284424e-01 -4.0835115313529968e-01</leafValues></_>
        <_>
          <internalNodes>
            0 -1 19 -9.4341721705859527e-06</internalNodes>
          <leafValues>
            3.9099833369255066e-01 -3.8526642322540283e-01</leafValues></_>
        <_>
          <internalNodes>
            0 -1 91 5.8676544576883316e-03</internalNodes>
          <leafValues>
            -1.3612245023250580e-01 7.7334380149841309e-01</leafValues></_>
        <_>
          <internalNodes>
            0 -1 107 -1.7595852259546518e-03</internalNodes>
          <leafValues>
            -6.8569159507751465e-01 1.9359572231769562e-01</leafValues></_>
        <_>
          <internalNodes>
            0 -1 72 -2.0981090143322945e-02</internalNodes>
          <leafValues>
            7.2539007663726807e-01 -1.8359331786632538e-01</leafValues></_>
        <_>
          <internalNodes>
            0 -1 31 -3.4916996955871582e-02</internalNodes>
          <leafValues>
            8.1887394189834595e-01 -1.1972872912883759e-01</leafValues></_>
        <_>
          <internalNodes>
            0 -1 32 2.8747415170073509e-02</internalNodes>
          <leafValues>
            -1.6299255192279816e-01 6.8111908435821533e-01</leafValues></_>
        <_>
          <internalNodes>
            0 -1 112 -8.5921210484229960e-06</internalNodes>
          <leafValues>
            4.0514355897903442e-01 -3.5873275995254517e-01</leafValues></_>
        <_>
          <internalNodes>
            0 -1 61 -8.0565661191940308e-03</internalNodes>
          <leafValues>
            5.2561068534851074e-01 -2.8152778744697571e-01</leafValues></_></weakClassifiers></_>
    <!-- stage 14 -->
    <_>
      <maxWeakCount>9</maxWeakCount>
      <stageThreshold>-3.7437671422958374e-01</stageThreshold>
      <weakClassifiers>
        <_>
          <internalNodes>
            0 -1 127 -3.8331844843924046e-03</internalNodes>
          <leafValues>
            -4.7619047760963440e-01 6.6857141256332397e-01</leafValues></_>
        <_>
          <internalNodes>
            0 -1 28 -3.9133278187364340e-04</internalNodes>
          <leafValues>
            -2.9599204659461975e-01 5.3956335783004761e-01</leafValues></_>
        <_>
          <internalNodes>
            0 -1 9 3.5875350236892700e-02</internalNodes>
          <leafValues>
            -1.8495370447635651e-01 8.5418832302093506e-01</leafValues></_>
        <_>
          <internalNodes>
            0 -1 26 -2.2821412421762943e-03</internalNodes>
          <leafValues>
            -5.0314080715179443e-01 2.9401639103889465e-01</leafValues></_>
        <_>
          <internalNodes>
            0 -1 11 1.4893942512571812e-02</internalNodes>
          <leafValues>
            -2.6455974578857422e-01 6.1945718526840210e-01</leafValues></_>
        <_>
          <internalNodes>
            0 -1 128 -9.3484797980636358e-04</internalNodes>
          <leafValues>
            -6.3513970375061035e-01 2.6150971651077271e-01</leafValues></_>
        <_>
          <internalNodes>
            0 -1 113 -1.7989566549658775e-03</internalNodes>
          <leafValues>
            -6.5781986713409424e-01 2.3286691308021545e-01</leafValues></_>
        <_>
          <internalNodes>
            0 -1 108 -1.3093433808535337e-03</internalNodes>
          <leafValues>
            6.9674289226531982e-01 -2.5423419475555420e-01</leafValues></_>
        <_>
          <internalNodes>
            0 -1 12 -2.6760930195450783e-03</internalNodes>
          <leafValues>
            -8.3160144090652466e-01 1.9579853117465973e-01</leafValues></_></weakClassifiers></_></stages>
  <features>
    <_>
      <rects>
        <_>
          0 0 34 20 -1.</_>
        <_>
          0 10 34 10 2.</_></rects>
      <tilted>0</tilted></_>
    <_>
      <rects>
        <_>
          0 1 25 4 -1.</_>
        <_>
          0 3 25 2 2.</_></rects>
      <tilted>0</tilted></_>
    <_>
      <rects>
        <_>
          0 1 36 12 -1.</_>
        <_>
          0 5 36 4 3.</_></rects>
      <tilted>0</tilted></_>
    <_>
      <rects>
        <_>
          0 4 36 18 -1.</_>
        <_>
          18 4 18 18 2.</_></rects>
      <tilted>0</tilted></_>
    <_>
      <rects>
        <_>
          0 5 33 3 -1.</_>
        <_>
          0 6 33 1 3.</_></rects>
      <tilted>0</tilted></_>
    <_>
      <rects>
        <_>
          0 7 2 12 -1.</_>
        <_>
          0 11 2 4 3.</_></rects>
      <tilted>0</tilted></_>
    <_>
      <rects>
        <_>
          0 7 27 15 -1.</_>
        <_>
          0 12 27 5 3.</_></rects>
      <tilted>0</tilted></_>
    <_>
      <rects>
        <_>
          0 10 1 2 -1.</_>
        <_>
          0 11 1 1 2.</_></rects>
      <tilted>0</tilted></_>
    <_>
      <rects>
        <_>
          0 11 14 2 -1.</_>
        <_>
          0 11 7 1 2.</_>
        <_>
          7 12 7 1 2.</_></rects>
      <tilted>0</tilted></_>
    <_>
      <rects>
        <_>
          0 11 22 2 -1.</_>
        <_>
          11 11 11 2 2.</_></rects>
      <tilted>0</tilted></_>
    <_>
      <rects>
        <_>
          0 11 25 6 -1.</_>
        <_>
          0 13 25 2 3.</_></rects>
      <tilted>0</tilted></_>
    <_>
      <rects>
        <_>
          0 12 32 8 -1.</_>
        <_>
          0 12 16 4 2.</_>
        <_>
          16 16 16 4 2.</_></rects>
      <tilted>0</tilted></_>
    <_>
      <rects>
        <_>
          0 18 2 6 -1.</_>
        <_>
          1 18 1 6 2.</_></rects>
      <tilted>0</tilted></_>
    <_>
      <rects>
        <_>
          0 20 2 4 -1.</_>
        <_>
          1 20 1 4 2.</_></rects>
      <tilted>0</tilted></_>
    <_>
      <rects>
        <_>
          1 7 6 3 -1.</_>
        <_>
          1 8 6 1 3.</_></rects>
      <tilted>0</tilted></_>
    <_>
      <rects>
        <_>
          1 7 33 10 -1.</_>
        <_>
          12 7 11 10 3.</_></rects>
      <tilted>0</tilted></_>
    <_>
      <rects>
        <_>
          1 7 35 6 -1.</_>
        <_>
          1 10 35 3 2.</_></rects>
      <tilted>0</tilted></_>
    <_>
      <rects>
        <_>
          1 20 2 2 -1.</_>
        <_>
          1 21 2 1 2.</_></rects>
      <tilted>0</tilted></_>
    <_>
      <rects>
        <_>
          1 23 2 1 -1.</_>
        <_>
          2 23 1 1 2.</_></rects>
      <tilted>0</tilted></_>
    <_>
      <rects>
        <_>
          2 17 2 2 -1.</_>
        <_>
          2 18 2 1 2.</_></rects>
      <tilted>0</tilted></_>
    <_>
      <rects>
        <_>
          2 17 27 2 -1.</_>
        <_>
          11 17 9 2 3.</_></rects>
      <tilted>0</tilted></_>
    <_>
      <rects>
        <_>
          3 0 6 3 -1.</_>
        <_>
          3 1 6 1 3.</_></rects>
      <tilted>0</tilted></_>
    <_>
      <rects>
        <_>
          3 10 33 12 -1.</_>
        <_>
          14 10 11 12 3.</_></rects>
      <tilted>0</tilted></_>
    <_>
      <rects>
        <_>
          3 12 20 10 -1.</_>
        <_>
          3 12 10 5 2.</_>
        <_>
          13 17 10 5 2.</_></rects>
      <tilted>0</tilted></_>
    <_>
      <rects>
        <_>
          3 18 18 1 -1.</_>
        <_>
          9 18 6 1 3.</_></rects>
      <tilted>0</tilted></_>
    <_>
      <rects>
        <_>
          4 7 22 6 -1.</_>
        <_>
          4 9 22 2 3.</_></rects>
      <tilted>0</tilted></_>
    <_>
      <rects>
        <_>
          4 14 6 9 -1.</_>
        <_>
          6 14 2 9 3.</_></rects>
      <tilted>0</tilted></_>
    <_>
      <rects>
        <_>
          4 23 2 1 -1.</_>
        <_>
          5 23 1 1 2.</_></rects>
      <tilted>0</tilted></_>
    <_>
      <rects>
        <_>
          5 0 3 12 -1.</_>
        <_>
          6 0 1 12 3.</_></rects>
      <tilted>0</tilted></_>
    <_>
      <rects>
        <_>
          6 4 16 2 -1.</_>
        <_>
          6 4 8 1 2.</_>
        <_>
          14 5 8 1 2.</_></rects>
      <tilted>0</tilted></_>
    <_>
      <rects>
        <_>
          6 6 27 15 -1.</_>
        <_>
          15 6 9 15 3.</_></rects>
      <tilted>0</tilted></_>
    <_>
      <rects>
        <_>
          6 9 21 9 -1.</_>
        <_>
          13 9 7 9 3.</_></rects>
      <tilted>0</tilted></_>
    <_>
      <rects>
        <_>
          6 9 19 9 -1.</_>
        <_>
          6 12 19 3 3.</_></rects>
      <tilted>0</tilted></_>
    <_>
      <rects>
        <_>
          6 11 21 1 -1.</_>
        <_>
          13 11 7 1 3.</_></rects>
      <tilted>0</tilted></_>
    <_>
      <rects>
        <_>
          6 19 9 5 -1.</_>
        <_>
          9 19 3 5 3.</_></rects>
      <tilted>0</tilted></_>
    <_>
      <rects>
        <_>
          6 22 3 2 -1.</_>
        <_>
          7 22 1 2 3.</_></rects>
      <tilted>0</tilted></_>
    <_>
      <rects>
        <_>
          7 0 29 12 -1.</_>
        <_>
          7 4 29 4 3.</_></rects>
      <tilted>0</tilted></_>
    <_>
      <rects>
        <_>
          7 7 16 6 -1.</_>
        <_>
          7 9 16 2 3.</_></rects>
      <tilted>0</tilted></_>
    <_>
      <rects>
        <_>
          7 7 23 3 -1.</_>
        <_>
          7 8 23 1 3.</_></rects>
      <tilted>0</tilted></_>
    <_>
      <rects>
        <_>
          7 11 3 8 -1.</_>
        <_>
          8 11 1 8 3.</_></rects>
      <tilted>0</tilted></_>
    <_>
      <rects>
        <_>
          7 12 2 12 -1.</_>
        <_>
          7 12 1 6 2.</_>
        <_>
          8 18 1 6 2.</_></rects>
      <tilted>0</tilted></_>
    <_>
      <rects>
        <_>
          7 12 29 9 -1.</_>
        <_>
          7 15 29 3 3.</_></rects>
      <tilted>0</tilted></_>
    <_>
      <rects>
        <_>
          7 14 4 4 -1.</_>
        <_>
          9 14 2 4 2.</_></rects>
      <tilted>0</tilted></_>
    <_>
      <rects>
        <_>
          7 20 23 4 -1.</_>
        <_>
          7 22 23 2 2.</_></rects>
      <tilted>0</tilted></_>
    <_>
      <rects>
        <_>
          8 7 18 17 -1.</_>
        <_>
          14 7 6 17 3.</_></rects>
      <tilted>0</tilted></_>
    <_>
      <rects>
        <_>
          8 8 26 4 -1.</_>
        <_>
          8 8 13 2 2.</_>
        <_>
          21 10 13 2 2.</_></rects>
      <tilted>0</tilted></_>
    <_>
      <rects>
        <_>
          9 20 1 4 -1.</_>
        <_>
          9 22 1 2 2.</_></rects>
      <tilted>0</tilted></_>
    <_>
      <rects>
        <_>
          10 8 15 5 -1.</_>
        <_>
          15 8 5 5 3.</_></rects>
      <tilted>0</tilted></_>
    <_>
      <rects>
        <_>
          10 13 10 2 -1.</_>
        <_>
          10 14 10 1 2.</_></rects>
      <tilted>0</tilted></_>
    <_>
      <rects>
        <_>
          11 0 19 24 -1.</_>
        <_>
          11 12 19 12 2.</_></rects>
      <tilted>0</tilted></_>
    <_>
      <rects>
        <_>
          11 4 16 12 -1.</_>
        <_>
          11 8 16 4 3.</_></rects>
      <tilted>0</tilted></_>
    <_>
      <rects>
        <_>
          11 8 8 12 -1.</_>
        <_>
          11 8 4 6 2.</_>
        <_>
          15 14 4 6 2.</_></rects>
      <tilted>0</tilted></_>
    <_>
      <rects>
        <_>
          11 8 21 9 -1.</_>
        <_>
          11 11 21 3 3.</_></rects>
      <tilted>0</tilted></_>
    <_>
      <rects>
        <_>
          11 9 15 4 -1.</_>
        <_>
          16 9 5 4 3.</_></rects>
      <tilted>0</tilted></_>
    <_>
      <rects>
        <_>
          11 9 22 4 -1.</_>
        <_>
          11 11 22 2 2.</_></rects>
      <tilted>0</tilted></_>
    <_>
      <rects>
        <_>
          11 11 15 1 -1.</_>
        <_>
          16 11 5 1 3.</_></rects>
      <tilted>0</tilted></_>
    <_>
      <rects>
        <_>
          11 13 14 3 -1.</_>
        <_>
          11 14 14 1 3.</_></rects>
      <tilted>0</tilted></_>
    <_>
      <rects>
        <_>
          12 7 6 17 -1.</_>
        <_>
          14 7 2 17 3.</_></rects>
      <tilted>0</tilted></_>
    <_>
      <rects>
        <_>
          12 7 12 7 -1.</_>
        <_>
          16 7 4 7 3.</_></rects>
      <tilted>0</tilted></_>
    <_>
      <rects>
        <_>
          12 8 6 13 -1.</_>
        <_>
          15 8 3 13 2.</_></rects>
      <tilted>0</tilted></_>
    <_>
      <rects>
        <_>
          12 9 15 12 -1.</_>
        <_>
          17 9 5 12 3.</_></rects>
      <tilted>0</tilted></_>
    <_>
      <rects>
        <_>
          12 10 16 4 -1.</_>
        <_>
          12 12 16 2 2.</_></rects>
      <tilted>0</tilted></_>
    <_>
      <rects>
        <_>
          12 11 12 2 -1.</_>
        <_>
          12 11 6 1 2.</_>
        <_>
          18 12 6 1 2.</_></rects>
      <tilted>0</tilted></_>
    <_>
      <rects>
        <_>
          13 1 15 2 -1.</_>
        <_>
          13 2 15 1 2.</_></rects>
      <tilted>0</tilted></_>
    <_>
      <rects>
        <_>
          13 6 8 12 -1.</_>
        <_>
          13 10 8 4 3.</_></rects>
      <tilted>0</tilted></_>
    <_>
      <rects>
        <_>
          13 7 9 8 -1.</_>
        <_>
          16 7 3 8 3.</_></rects>
      <tilted>0</tilted></_>
    <_>
      <rects>
        <_>
          13 8 10 9 -1.</_>
        <_>
          13 11 10 3 3.</_></rects>
      <tilted>0</tilted></_>
    <_>
      <rects>
        <_>
          13 9 6 3 -1.</_>
        <_>
          13 10 6 1 3.</_></rects>
      <tilted>0</tilted></_>
    <_>
      <rects>
        <_>
          13 14 5 3 -1.</_>
        <_>
          13 15 5 1 3.</_></rects>
      <tilted>0</tilted></_>
    <_>
      <rects>
        <_>
          14 0 14 3 -1.</_>
        <_>
          14 1 14 1 3.</_></rects>
      <tilted>0</tilted></_>
    <_>
      <rects>
        <_>
          14 3 10 9 -1.</_>
        <_>
          14 6 10 3 3.</_></rects>
      <tilted>0</tilted></_>
    <_>
      <rects>
        <_>
          14 6 8 6 -1.</_>
        <_>
          14 9 8 3 2.</_></rects>
      <tilted>0</tilted></_>
    <_>
      <rects>
        <_>
          14 7 8 8 -1.</_>
        <_>
          18 7 4 8 2.</_></rects>
      <tilted>0</tilted></_>
    <_>
      <rects>
        <_>
          14 9 14 8 -1.</_>
        <_>
          14 13 14 4 2.</_></rects>
      <tilted>0</tilted></_>
    <_>
      <rects>
        <_>
          14 13 22 4 -1.</_>
        <_>
          14 13 11 2 2.</_>
        <_>
          25 15 11 2 2.</_></rects>
      <tilted>0</tilted></_>
    <_>
      <rects>
        <_>
          14 20 2 1 -1.</_>
        <_>
          15 20 1 1 2.</_></rects>
      <tilted>0</tilted></_>
    <_>
      <rects>
        <_>
          15 5 6 5 -1.</_>
        <_>
          17 5 2 5 3.</_></rects>
      <tilted>0</tilted></_>
    <_>
      <rects>
        <_>
          15 6 10 7 -1.</_>
        <_>
          20 6 5 7 2.</_></rects>
      <tilted>0</tilted></_>
    <_>
      <rects>
        <_>
          15 9 5 3 -1.</_>
        <_>
          15 10 5 1 3.</_></rects>
      <tilted>0</tilted></_>
    <_>
      <rects>
        <_>
          15 12 8 4 -1.</_>
        <_>
          15 12 4 2 2.</_>
        <_>
          19 14 4 2 2.</_></rects>
      <tilted>0</tilted></_>
    <_>
      <rects>
        <_>
          15 14 10 1 -1.</_>
        <_>
          20 14 5 1 2.</_></rects>
      <tilted>0</tilted></_>
    <_>
      <rects>
        <_>
          15 16 10 3 -1.</_>
        <_>
          20 16 5 3 2.</_></rects>
      <tilted>0</tilted></_>
    <_>
      <rects>
        <_>
          15 22 14 2 -1.</_>
        <_>
          15 22 7 1 2.</_>
        <_>
          22 23 7 1 2.</_></rects>
      <tilted>0</tilted></_>
    <_>
      <rects>
        <_>
          16 4 5 8 -1.</_>
        <_>
          16 8 5 4 2.</_></rects>
      <tilted>0</tilted></_>
    <_>
      <rects>
        <_>
          16 5 4 15 -1.</_>
        <_>
          16 10 4 5 3.</_></rects>
      <tilted>0</tilted></_>
    <_>
      <rects>
        <_>
          16 11 2 3 -1.</_>
        <_>
          16 12 2 1 3.</_></rects>
      <tilted>0</tilted></_>
    <_>
      <rects>
        <_>
          16 11 8 2 -1.</_>
        <_>
          16 11 4 1 2.</_>
        <_>
          20 12 4 1 2.</_></rects>
      <tilted>0</tilted></_>
    <_>
      <rects>
        <_>
          16 11 18 2 -1.</_>
        <_>
          16 11 9 1 2.</_>
        <_>
          25 12 9 1 2.</_></rects>
      <tilted>0</tilted></_>
    <_>
      <rects>
        <_>
          17 0 1 14 -1.</_>
        <_>
          17 7 1 7 2.</_></rects>
      <tilted>0</tilted></_>
    <_>
      <rects>
        <_>
          17 6 2 12 -1.</_>
        <_>
          17 10 2 4 3.</_></rects>
      <tilted>0</tilted></_>
    <_>
      <rects>
        <_>
          17 7 2 6 -1.</_>
        <_>
          17 10 2 3 2.</_></rects>
      <tilted>0</tilted></_>
    <_>
      <rects>
        <_>
          17 8 6 6 -1.</_>
        <_>
          19 8 2 6 3.</_></rects>
      <tilted>0</tilted></_>
    <_>
      <rects>
        <_>
          17 10 15 4 -1.</_>
        <_>
          22 10 5 4 3.</_></rects>
      <tilted>0</tilted></_>
    <_>
      <rects>
        <_>
          17 11 19 12 -1.</_>
        <_>
          17 17 19 6 2.</_></rects>
      <tilted>0</tilted></_>
    <_>
      <rects>
        <_>
          17 12 1 4 -1.</_>
        <_>
          17 14 1 2 2.</_></rects>
      <tilted>0</tilted></_>
    <_>
      <rects>
        <_>
          18 0 9 13 -1.</_>
        <_>
          21 0 3 13 3.</_></rects>
      <tilted>0</tilted></_>
    <_>
      <rects>
        <_>
          18 1 2 22 -1.</_>
        <_>
          19 1 1 22 2.</_></rects>
      <tilted>0</tilted></_>
    <_>
      <rects>
        <_>
          18 6 3 7 -1.</_>
        <_>
          19 6 1 7 3.</_></rects>
      <tilted>0</tilted></_>
    <_>
      <rects>
        <_>
          18 6 4 2 -1.</_>
        <_>
          18 6 2 1 2.</_>
        <_>
          20 7 2 1 2.</_></rects>
      <tilted>0</tilted></_>
    <_>
      <rects>
        <_>
          18 8 3 7 -1.</_>
        <_>
          19 8 1 7 3.</_></rects>
      <tilted>0</tilted></_>
    <_>
      <rects>
        <_>
          19 5 2 12 -1.</_>
        <_>
          19 9 2 4 3.</_></rects>
      <tilted>0</tilted></_>
    <_>
      <rects>
        <_>
          19 5 12 11 -1.</_>
        <_>
          23 5 4 11 3.</_></rects>
      <tilted>0</tilted></_>
    <_>
      <rects>
        <_>
          19 8 8 12 -1.</_>
        <_>
          19 12 8 4 3.</_></rects>
      <tilted>0</tilted></_>
    <_>
      <rects>
        <_>
          20 13 3 1 -1.</_>
        <_>
          21 13 1 1 3.</_></rects>
      <tilted>0</tilted></_>
    <_>
      <rects>
        <_>
          20 17 4 2 -1.</_>
        <_>
          20 17 2 1 2.</_>
        <_>
          22 18 2 1 2.</_></rects>
      <tilted>0</tilted></_>
    <_>
      <rects>
        <_>
          21 5 1 16 -1.</_>
        <_>
          21 13 1 8 2.</_></rects>
      <tilted>0</tilted></_>
    <_>
      <rects>
        <_>
          21 19 2 4 -1.</_>
        <_>
          21 21 2 2 2.</_></rects>
      <tilted>0</tilted></_>
    <_>
      <rects>
        <_>
          22 14 3 8 -1.</_>
        <_>
          23 14 1 8 3.</_></rects>
      <tilted>0</tilted></_>
    <_>
      <rects>
        <_>
          22 16 6 2 -1.</_>
        <_>
          22 17 6 1 2.</_></rects>
      <tilted>0</tilted></_>
    <_>
      <rects>
        <_>
          23 1 3 7 -1.</_>
        <_>
          24 1 1 7 3.</_></rects>
      <tilted>0</tilted></_>
    <_>
      <rects>
        <_>
          23 7 4 9 -1.</_>
        <_>
          23 10 4 3 3.</_></rects>
      <tilted>0</tilted></_>
    <_>
      <rects>
        <_>
          24 20 8 4 -1.</_>
        <_>
          24 22 8 2 2.</_></rects>
      <tilted>0</tilted></_>
    <_>
      <rects>
        <_>
          25 21 3 2 -1.</_>
        <_>
          25 22 3 1 2.</_></rects>
      <tilted>0</tilted></_>
    <_>
      <rects>
        <_>
          26 2 6 2 -1.</_>
        <_>
          28 2 2 2 3.</_></rects>
      <tilted>0</tilted></_>
    <_>
      <rects>
        <_>
          27 0 4 2 -1.</_>
        <_>
          29 0 2 2 2.</_></rects>
      <tilted>0</tilted></_>
    <_>
      <rects>
        <_>
          27 3 4 13 -1.</_>
        <_>
          29 3 2 13 2.</_></rects>
      <tilted>0</tilted></_>
    <_>
      <rects>
        <_>
          27 17 4 6 -1.</_>
        <_>
          29 17 2 6 2.</_></rects>
      <tilted>0</tilted></_>
    <_>
      <rects>
        <_>
          28 0 4 8 -1.</_>
        <_>
          28 4 4 4 2.</_></rects>
      <tilted>0</tilted></_>
    <_>
      <rects>
        <_>
          28 22 3 2 -1.</_>
        <_>
          29 22 1 2 3.</_></rects>
      <tilted>0</tilted></_>
    <_>
      <rects>
        <_>
          29 22 6 2 -1.</_>
        <_>
          31 22 2 2 3.</_></rects>
      <tilted>0</tilted></_>
    <_>
      <rects>
        <_>
          30 11 2 3 -1.</_>
        <_>
          31 11 1 3 2.</_></rects>
      <tilted>0</tilted></_>
    <_>
      <rects>
        <_>
          30 22 2 2 -1.</_>
        <_>
          30 22 1 1 2.</_>
        <_>
          31 23 1 1 2.</_></rects>
      <tilted>0</tilted></_>
    <_>
      <rects>
        <_>
          31 5 2 4 -1.</_>
        <_>
          32 5 1 4 2.</_></rects>
      <tilted>0</tilted></_>
    <_>
      <rects>
        <_>
          31 9 2 11 -1.</_>
        <_>
          32 9 1 11 2.</_></rects>
      <tilted>0</tilted></_>
    <_>
      <rects>
        <_>
          31 17 2 5 -1.</_>
        <_>
          32 17 1 5 2.</_></rects>
      <tilted>0</tilted></_>
    <_>
      <rects>
        <_>
          32 13 4 3 -1.</_>
        <_>
          34 13 2 3 2.</_></rects>
      <tilted>0</tilted></_>
    <_>
      <rects>
        <_>
          33 1 3 4 -1.</_>
        <_>
          34 1 1 4 3.</_></rects>
      <tilted>0</tilted></_>
    <_>
      <rects>
        <_>
          33 10 3 13 -1.</_>
        <_>
          34 10 1 13 3.</_></rects>
      <tilted>0</tilted></_>
    <_>
      <rects>
        <_>
          33 17 2 4 -1.</_>
        <_>
          34 17 1 4 2.</_></rects>
      <tilted>0</tilted></_>
    <_>
      <rects>
        <_>
          33 21 3 1 -1.</_>
        <_>
          34 21 1 1 3.</_></rects>
      <tilted>0</tilted></_>
    <_>
      <rects>
        <_>
          34 0 2 1 -1.</_>
        <_>
          35 0 1 1 2.</_></rects>
      <tilted>0</tilted></_>
    <_>
      <rects>
        <_>
          34 1 2 11 -1.</_>
        <_>
          35 1 1 11 2.</_></rects>
      <tilted>0</tilted></_>
    <_>
      <rects>
        <_>
          34 5 1 6 -1.</_>
        <_>
          34 8 1 3 2.</_></rects>
      <tilted>0</tilted></_>
    <_>
      <rects>
        <_>
          34 5 2 12 -1.</_>
        <_>
          34 5 1 6 2.</_>
        <_>
          35 11 1 6 2.</_></rects>
      <tilted>0</tilted></_>
    <_>
      <rects>
        <_>
          34 14 2 8 -1.</_>
        <_>
          34 14 1 4 2.</_>
        <_>
          35 18 1 4 2.</_></rects>
      <tilted>0</tilted></_>
    <_>
      <rects>
        <_>
          34 17 2 2 -1.</_>
        <_>
          34 17 1 1 2.</_>
        <_>
          35 18 1 1 2.</_></rects>
      <tilted>0</tilted></_>
    <_>
      <rects>
        <_>
          34 20 2 2 -1.</_>
        <_>
          35 20 1 2 2.</_></rects>
      <tilted>0</tilted></_></features></cascade>
</opencv_storage>
